digraph Tree {
node [shape=box] ;
0 [label="feature_dqdv_max <= 11250.406\nmse = 0.002\nsamples = 136397\nvalue = 0.941"] ;
1 [label="feature_dqdv_max <= 11244.344\nmse = 0.008\nsamples = 6433\nvalue = 0.863"] ;
0 -> 1 [labeldistance=2.5, labelangle=45, headlabel="True"] ;
2 [label="feature_dqdv_diff2_min <= -4868.95\nmse = 0.005\nsamples = 3761\nvalue = 0.924"] ;
1 -> 2 ;
3 [label="feature_dqdv_diff_max <= 6008.647\nmse = 0.004\nsamples = 3756\nvalue = 0.925"] ;
2 -> 3 ;
4 [label="(...)"] ;
3 -> 4 ;
525 [label="(...)"] ;
3 -> 525 ;
5148 [label="mse = 0.0\nsamples = 5\nvalue = 0.11"] ;
2 -> 5148 ;
5149 [label="feature_voltage_mean <= 1.122\nmse = 0.0\nsamples = 2672\nvalue = 0.779"] ;
1 -> 5149 ;
5150 [label="feature_voltage_min <= 0.824\nmse = 0.0\nsamples = 2669\nvalue = 0.779"] ;
5149 -> 5150 ;
5151 [label="(...)"] ;
5150 -> 5151 ;
5194 [label="(...)"] ;
5150 -> 5194 ;
6603 [label="feature_dqdv_diffrate_median <= 1.993\nmse = 0.0\nsamples = 3\nvalue = 0.974"] ;
5149 -> 6603 ;
6604 [label="(...)"] ;
6603 -> 6604 ;
6607 [label="(...)"] ;
6603 -> 6607 ;
6608 [label="feature_dqdv_diff2_std <= 25911.201\nmse = 0.002\nsamples = 129964\nvalue = 0.945"] ;
0 -> 6608 [labeldistance=2.5, labelangle=-45, headlabel="False"] ;
6609 [label="feature_dqdv_max <= 22501.812\nmse = 0.002\nsamples = 81711\nvalue = 0.938"] ;
6608 -> 6609 ;
6610 [label="feature_dqdv_diffrate_std <= 1.417\nmse = 0.002\nsamples = 46349\nvalue = 0.944"] ;
6609 -> 6610 ;
6611 [label="(...)"] ;
6610 -> 6611 ;
52120 [label="(...)"] ;
6610 -> 52120 ;
57347 [label="feature_voltage_max <= 0.949\nmse = 0.002\nsamples = 35362\nvalue = 0.93"] ;
6609 -> 57347 ;
57348 [label="(...)"] ;
57347 -> 57348 ;
57349 [label="(...)"] ;
57347 -> 57349 ;
93944 [label="feature_voltage_median <= 1.122\nmse = 0.001\nsamples = 48253\nvalue = 0.957"] ;
6608 -> 93944 ;
93945 [label="feature_dqdv_std <= 10609.08\nmse = 0.001\nsamples = 47659\nvalue = 0.958"] ;
93944 -> 93945 ;
93946 [label="(...)"] ;
93945 -> 93946 ;
123077 [label="(...)"] ;
93945 -> 123077 ;
148620 [label="feature_dqdv_diff_std <= 16003.256\nmse = 0.005\nsamples = 594\nvalue = 0.912"] ;
93944 -> 148620 ;
148621 [label="(...)"] ;
148620 -> 148621 ;
149272 [label="(...)"] ;
148620 -> 149272 ;
}