digraph Tree {
node [shape=box] ;
0 [label="feature_dqdv_max <= 22492.469\nfriedman_mse = 0.002\nsamples = 216492\nvalue = 0.0"] ;
1 [label="feature_voltage_max <= 1.109\nfriedman_mse = 0.009\nsamples = 8385\nvalue = -0.088"] ;
0 -> 1 [labeldistance=2.5, labelangle=45, headlabel="True"] ;
2 [label="feature_dqdv_std <= 1262.05\nfriedman_mse = 0.002\nsamples = 4827\nvalue = -0.16"] ;
1 -> 2 ;
3 [label="friedman_mse = 0.0\nsamples = 11\nvalue = -0.803"] ;
2 -> 3 ;
4 [label="friedman_mse = 0.001\nsamples = 4816\nvalue = -0.158"] ;
2 -> 4 ;
5 [label="feature_voltage_std <= 0.069\nfriedman_mse = 0.001\nsamples = 3558\nvalue = 0.009"] ;
1 -> 5 ;
6 [label="friedman_mse = 0.0\nsamples = 2637\nvalue = 0.024"] ;
5 -> 6 ;
7 [label="friedman_mse = 0.001\nsamples = 921\nvalue = -0.032"] ;
5 -> 7 ;
8 [label="feature_dqdv_mean <= 12217.586\nfriedman_mse = 0.002\nsamples = 208107\nvalue = 0.004"] ;
0 -> 8 [labeldistance=2.5, labelangle=-45, headlabel="False"] ;
9 [label="feature_voltage_diff_min <= -0.003\nfriedman_mse = 0.003\nsamples = 34106\nvalue = -0.013"] ;
8 -> 9 ;
10 [label="friedman_mse = 0.001\nsamples = 10867\nvalue = 0.009"] ;
9 -> 10 ;
11 [label="friedman_mse = 0.004\nsamples = 23239\nvalue = -0.023"] ;
9 -> 11 ;
12 [label="feature_dqdv_diff2_std <= 23077.383\nfriedman_mse = 0.001\nsamples = 174001\nvalue = 0.007"] ;
8 -> 12 ;
13 [label="friedman_mse = 0.002\nsamples = 93232\nvalue = 0.001"] ;
12 -> 13 ;
14 [label="friedman_mse = 0.001\nsamples = 80769\nvalue = 0.014"] ;
12 -> 14 ;
}