digraph Tree {
node [shape=box] ;
0 [label="feature_dqdv_max <= 22492.312\nmse = 0.002\nsamples = 136651\nvalue = 0.939"] ;
1 [label="feature_voltage_max <= 1.109\nmse = 0.009\nsamples = 5303\nvalue = 0.85"] ;
0 -> 1 [labeldistance=2.5, labelangle=45, headlabel="True"] ;
2 [label="feature_dqdv_std <= 1083.342\nmse = 0.002\nsamples = 3055\nvalue = 0.779"] ;
1 -> 2 ;
3 [label="mse = 0.0\nsamples = 7\nvalue = 0.136"] ;
2 -> 3 ;
4 [label="feature_voltage_diffrate_min <= -0.006\nmse = 0.001\nsamples = 3048\nvalue = 0.78"] ;
2 -> 4 ;
5 [label="(...)"] ;
4 -> 5 ;
74 [label="(...)"] ;
4 -> 74 ;
2407 [label="feature_voltage_std <= 0.069\nmse = 0.001\nsamples = 2248\nvalue = 0.948"] ;
1 -> 2407 ;
2408 [label="feature_voltage_std <= 0.068\nmse = 0.0\nsamples = 1652\nvalue = 0.963"] ;
2407 -> 2408 ;
2409 [label="(...)"] ;
2408 -> 2409 ;
3166 [label="(...)"] ;
2408 -> 3166 ;
3861 [label="feature_voltage_diffrate_mean <= -0.0\nmse = 0.001\nsamples = 596\nvalue = 0.908"] ;
2407 -> 3861 ;
3862 [label="(...)"] ;
3861 -> 3862 ;
4077 [label="(...)"] ;
3861 -> 4077 ;
4404 [label="feature_dqdv_mean <= 12176.674\nmse = 0.002\nsamples = 131348\nvalue = 0.943"] ;
0 -> 4404 [labeldistance=2.5, labelangle=-45, headlabel="False"] ;
4405 [label="feature_voltage_diff_min <= -0.003\nmse = 0.003\nsamples = 21013\nvalue = 0.926"] ;
4404 -> 4405 ;
4406 [label="feature_voltage_median <= 0.871\nmse = 0.001\nsamples = 6398\nvalue = 0.948"] ;
4405 -> 4406 ;
4407 [label="(...)"] ;
4406 -> 4407 ;
4666 [label="(...)"] ;
4406 -> 4666 ;
11433 [label="feature_voltage_max <= 1.11\nmse = 0.004\nsamples = 14615\nvalue = 0.916"] ;
4405 -> 11433 ;
11434 [label="(...)"] ;
11433 -> 11434 ;
22587 [label="(...)"] ;
11433 -> 22587 ;
27082 [label="feature_dqdv_diff2_std <= 23160.195\nmse = 0.001\nsamples = 110335\nvalue = 0.946"] ;
4404 -> 27082 ;
27083 [label="feature_voltage_min <= 0.968\nmse = 0.002\nsamples = 59892\nvalue = 0.94"] ;
27082 -> 27083 ;
27084 [label="(...)"] ;
27083 -> 27084 ;
67577 [label="(...)"] ;
27083 -> 67577 ;
92810 [label="feature_dqdv_max <= 22507.812\nmse = 0.001\nsamples = 50443\nvalue = 0.953"] ;
27082 -> 92810 ;
92811 [label="(...)"] ;
92810 -> 92811 ;
131688 [label="(...)"] ;
92810 -> 131688 ;
}