digraph Tree {
node [shape=box] ;
0 [label="feature_current_min <= -0.973\nmse = 0.002\nsamples = 136704\nvalue = 0.939"] ;
1 [label="feature_current_max <= -0.973\nmse = 0.002\nsamples = 133885\nvalue = 0.943"] ;
0 -> 1 [labeldistance=2.5, labelangle=45, headlabel="True"] ;
2 [label="feature_current_diff2_std <= 0.0\nmse = 0.002\nsamples = 9703\nvalue = 0.915"] ;
1 -> 2 ;
3 [label="feature_voltage_diff2_max <= 0.0\nmse = 0.003\nsamples = 1985\nvalue = 0.86"] ;
2 -> 3 ;
4 [label="(...)"] ;
3 -> 4 ;
5 [label="(...)"] ;
3 -> 5 ;
1806 [label="feature_current_median <= -0.973\nmse = 0.001\nsamples = 7718\nvalue = 0.929"] ;
2 -> 1806 ;
1807 [label="(...)"] ;
1806 -> 1807 ;
2996 [label="(...)"] ;
1806 -> 2996 ;
6139 [label="feature_dqdv_mean <= 12404.525\nmse = 0.002\nsamples = 124182\nvalue = 0.945"] ;
1 -> 6139 ;
6140 [label="feature_voltage_max <= 1.111\nmse = 0.003\nsamples = 22980\nvalue = 0.928"] ;
6139 -> 6140 ;
6141 [label="(...)"] ;
6140 -> 6141 ;
21958 [label="(...)"] ;
6140 -> 21958 ;
26557 [label="feature_current_median <= -0.973\nmse = 0.001\nsamples = 101202\nvalue = 0.949"] ;
6139 -> 26557 ;
26558 [label="(...)"] ;
26557 -> 26558 ;
74767 [label="(...)"] ;
26557 -> 74767 ;
93892 [label="feature_current_std <= 0.0\nmse = 0.0\nsamples = 2819\nvalue = 0.777"] ;
0 -> 93892 [labeldistance=2.5, labelangle=-45, headlabel="False"] ;
93893 [label="feature_current_mean <= -0.972\nmse = 0.0\nsamples = 500\nvalue = 0.767"] ;
93892 -> 93893 ;
93894 [label="feature_voltage_diffrate_mean <= -0.0\nmse = 0.0\nsamples = 5\nvalue = 0.745"] ;
93893 -> 93894 ;
93895 [label="(...)"] ;
93894 -> 93895 ;
93896 [label="(...)"] ;
93894 -> 93896 ;
93897 [label="feature_current_std <= 0.0\nmse = 0.0\nsamples = 495\nvalue = 0.767"] ;
93893 -> 93897 ;
93898 [label="(...)"] ;
93897 -> 93898 ;
94123 [label="(...)"] ;
93897 -> 94123 ;
94202 [label="feature_current_mean <= -0.972\nmse = 0.0\nsamples = 2319\nvalue = 0.78"] ;
93892 -> 94202 ;
94203 [label="feature_voltage_max <= 1.106\nmse = 0.0\nsamples = 118\nvalue = 0.761"] ;
94202 -> 94203 ;
94204 [label="(...)"] ;
94203 -> 94204 ;
94273 [label="(...)"] ;
94203 -> 94273 ;
94282 [label="feature_voltage_max <= 1.106\nmse = 0.0\nsamples = 2201\nvalue = 0.781"] ;
94202 -> 94282 ;
94283 [label="(...)"] ;
94282 -> 94283 ;
95672 [label="(...)"] ;
94282 -> 95672 ;
}